,w_scale,b_scale,subq,wq,bq
conv2d_0,[0.000024346203211791246 0.000022667691235730948],[-0.00000000006879606350111579],[-4.913784687e+09  2.027637780e+08],"[[[[-17573. -19664.]]

  [[-20050. -30349.]]

  [[ 20842.  16462.]]]


 [[[ 15574.  26247.]]

  [[ 26630. -11266.]]

  [[  5882.  11508.]]]


 [[[ -4061.  -2429.]]

  [[ 18168. -26502.]]

  [[ 32767.  32767.]]]]",[1.073741823e+09 4.216919960e+08]
conv2d_1,[0.000056843179784148754 0.000034996137952496996 0.000043382776141037926],[-0.0000000012774224230922151],[ 1.67930875e+09  3.06731887e+08 -2.62496437e+09],"[[[[ -8539.  10984. -19479.]
   [ 17767. -11427.  10349.]]

  [[ -7527.  -1155. -14125.]
   [   761. -10116.  17324.]]

  [[  2678.   5015.   8096.]
   [-13247. -13627.  24585.]]]


 [[[  -158.  23416.  11332.]
   [ 20077.  14291.   8411.]]

  [[-32767. -15559.  32767.]
   [-16466.  11012.  22507.]]

  [[   174.   4835.  22318.]
   [ -5582.   3149.  -2996.]]]


 [[[  9552.  19002.  -4787.]
   [  2456.  -6021.  31031.]]

  [[ 11106.   6994. -20139.]
   [-22446. -22327.  -8878.]]

  [[ -7731.   4940. -27353.]
   [ -1358. -32767. -10853.]]]]",[-1.073741823e+09  6.096602160e+08  1.124294350e+08]
dense,[0.000031741399286757744],[-0.0000000002212639323841755],"[ 3.497025308e+09  4.064713583e+09 -1.341153310e+08  1.558595122e+09
  1.409177602e+09  1.127283101e+09  3.421890577e+09  1.609646108e+09
  1.779805139e+09  1.489555053e+09]","[[-12977.   1496.  16707.   1151. -13357.  -1675. -16188.  -9644. -22025.
   -9578.]
 [   705. -13173.   1987.   9058.  -2363.  -4401.  -5637.  -6397.   8780.
    6478.]
 [ -8435.  -1547.  18706.  -2705. -15389. -11490.  -2169.  10470. -16807.
  -15113.]
 [-23827.  22021.  -3867. -17839. -17792.   8747.  16212. -15746.  -2470.
   -3676.]
 [-24753. -18125.  -8541.  10298.   4304.  11027.   8550. -14686.  21146.
    5742.]
 [   158.   9357.  24153.  17114.  -7857.  -9620.   2574. -14861.  16166.
   -8705.]
 [   717. -10830.   2320.  -4099.   3629. -18890.  17446.   9315. -10843.
   -1658.]
 [ 31053. -17053.   4158.  -2387.  -9231. -14132.  -9928.   1321.   1872.
   -6803.]
 [  3354. -12560.  -2215. -18132.   3087.  15485. -16504.  -3941.   9924.
  -10112.]
 [-15452. -15721. -12814.   5202. -12460.  12013. -17950.   5929.   2524.
   -3733.]
 [ -2283.  -6439.  -2018.  -3425.  -5792.  -7035.   8450.  14758.  -3159.
    -155.]
 [ -3276.  -4666. -15813. -16870.  17148. -17907.  14946. -17421.  -9441.
   22553.]
 [-26343.  18312. -12241.  -7959. -12045. -11306. -13059.  -4236.   4517.
   -3526.]
 [  8825. -14240.  -3992.   2124. -11392.   7344.  -9606. -20416.   -242.
  -12303.]
 [-20123.   3371.   4428.   7567.  12417.  -9063.  -6806.   3793. -11865.
   -8136.]
 [  9941.   -944.  13274.   4219.   6829.   5103.  -8281.   5529.  -6817.
    6984.]
 [  6563. -20453.  11238.  -7341.   5806. -14341.   6458. -13313.   6494.
   -4304.]
 [ -4649. -14412.   3836.    -69.   6750.   -852.    -59. -18704. -12211.
  -18638.]
 [-17966.   -816.   5270.     -8.  12203.  10667.  -5265.    916.  -7832.
   11794.]
 [ 11235. -13786.   4319.  -7328.  -5581.   7955.   6016.  -1530. -14656.
     881.]
 [-11553.  18308.  -4466.  10145.   1827.   4727.   5128.  21295.   6021.
    9396.]
 [-22327.  12115.  -3770.  -2011.  17632. -14023. -16468.   7906.  -1276.
  -12390.]
 [ -2415.  -5923.  10692.  -6730.  -6200. -12805.  -3485.   4658.  13722.
    9712.]
 [ 10533. -27752. -32767.  11340.  -3660.   7504. -30572.  10848. -11094.
    8745.]
 [  3115.  -6249. -23089.  -5755.  -5235.  14416.   3133.   7473.  -5123.
   11316.]
 [  4762.  -2360.  -3986.     17.   5526.  13193.  -7280.   -793. -11522.
   -8408.]
 [ -1306.  -1980.  12584. -23143. -11810.  -5044. -24087. -11647.   1900.
  -11822.]]","[-4.938659000e+08 -4.408418680e+08 -7.070066420e+08  6.908708700e+08
 -3.162867350e+08 -3.668751180e+08 -5.019391830e+08 -5.039328400e+08
  1.073741823e+09  5.749583430e+08]"
